<?xml version="1.0"?>
<opencv_storage>
<cascade type_id="opencv-haar-classifier"><size>
    20 20</size>
  <stages>
    <_>
      <trees>
        <_>
          <_>
            <feature>
              <rects>
                <_>
                  0 4 20 16 -1.</_>
                <_>
                  0 12 20 8 2.</_></rects>
              <tilted>0</tilted></feature>
            <threshold>-1.3659924268722534e-01</threshold>
            <left_val>2.9331352154529289e-01</left_val>
            <right_val>-9.0385043400844844e-01</right_val></_></_>
        <_>
          <_>
            <feature>
              <rects>
                <_>
                  0 14 1 6 -1.</_>
                <_>
                  0 17 1 3 2.</_></rects>
              <tilted>0</tilted></feature>
            <threshold>-1.5565603971481323e-03</threshold>
            <left_val>3.6801517848320842e-01</left_val>
            <right_val>-7.5292301927175398e-01</right_val></_></_>
        <_>
          <_>
            <feature>
              <rects>
                <_>
                  2 0 18 8 -1.</_>
                <_>
                  11 0 9 8 2.</_></rects>
              <tilted>0</tilted></feature>
            <threshold>-4.6707149595022202e-02</threshold>
            <left_val>2.9481304244189110e-01</left_val>
            <right_val>-7.3841289951019928e-01</right_val></_></_>
        <_>
          <_>
            <feature>
              <rects>
                <_>
                  14 18 1 2 -1.</_>
                <_>
                  14 19 1 1 2.</_></rects>
              <tilted>0</tilted></feature>
            <threshold>-3.7897424772381783e-04</threshold>
            <left_val>5.8168834838022454e-01</left_val>
            <right_val>-4.4408626265399975e-01</right_val></_></_>
        <_>
          <_>
            <feature>
              <rects>
                <_>
                  6 0 10 2 -1.</_>
                <_>
                  6 1 10 1 2.</_></rects>
              <tilted>0</tilted></feature>
            <threshold>7.2377854958176613e-03</threshold>
            <left_val>-2.7285893307838743e-01</left_val>
            <right_val>6.9203906074669219e-01</right_val></_></_>
        <_>
          <_>
            <feature>
              <rects>
                <_>
                  0 0 2 2 -1.</_>
                <_>
                  0 1 2 1 2.</_></rects>
              <tilted>0</tilted></feature>
            <threshold>-5.5603850341867656e-05</threshold>
            <left_val>4.1290312677306218e-01</left_val>
            <right_val>-4.4061816988007391e-01</right_val></_></_></trees>
      <stage_threshold>-2.4318115711212158e+00</stage_threshold>
      <parent>-1</parent>
      <next>-1</next></_>
    <_>
      <trees>
        <_>
          <_>
            <feature>
              <rects>
                <_>
                  0 19 2 1 -1.</_>
                <_>
                  1 19 1 1 2.</_></rects>
              <tilted>0</tilted></feature>
            <threshold>3.0276277102530003e-03</threshold>
            <left_val>-5.8051869722554594e-01</left_val>
            <right_val>6.3295269168026103e-01</right_val></_></_>
        <_>
          <_>
            <feature>
              <rects>
                <_>
                  4 0 16 18 -1.</_>
                <_>
                  12 0 8 18 2.</_></rects>
              <tilted>0</tilted></feature>
            <threshold>-3.5433344542980194e-02</threshold>
            <left_val>2.6704580606117317e-01</left_val>
            <right_val>-8.1206719752743339e-01</right_val></_></_>
        <_>
          <_>
            <feature>
              <rects>
                <_>
                  0 12 20 8 -1.</_>
                <_>
                  0 16 20 4 2.</_></rects>
              <tilted>0</tilted></feature>
            <threshold>-5.8526556938886642e-02</threshold>
            <left_val>3.6335591885001789e-01</left_val>
            <right_val>-6.0831229207814164e-01</right_val></_></_>
        <_>
          <_>
            <feature>
              <rects>
                <_>
                  0 2 1 18 -1.</_>
                <_>
                  0 11 1 9 2.</_></rects>
              <tilted>0</tilted></feature>
            <threshold>-5.6238244287669659e-03</threshold>
            <left_val>3.0792375700958652e-01</left_val>
            <right_val>-6.5270454798485067e-01</right_val></_></_>
        <_>
          <_>
            <feature>
              <rects>
                <_>
                  13 0 2 1 -1.</_>
                <_>
                  14 0 1 1 2.</_></rects>
              <tilted>0</tilted></feature>
            <threshold>-5.2284754929132760e-05</threshold>
            <left_val>3.2987628119853557e-01</left_val>
            <right_val>-5.4020717890159331e-01</right_val></_></_>
        <_>
          <_>
            <feature>
              <rects>
                <_>
                  16 15 4 4 -1.</_>
                <_>
                  18 15 2 4 2.</_></rects>
              <tilted>0</tilted></feature>
            <threshold>-3.0140988528728485e-03</threshold>
            <left_val>4.2786880074442674e-01</left_val>
            <right_val>-3.7435144926235997e-01</right_val></_></_>
        <_>
          <_>
            <feature>
              <rects>
                <_>
                  11 18 1 2 -1.</_>
                <_>
                  11 19 1 1 2.</_></rects>
              <tilted>0</tilted></feature>
            <threshold>-2.6087078731507063e-04</threshold>
            <left_val>3.7187319983882555e-01</left_val>
            <right_val>-3.9509371726761117e-01</right_val></_></_>
        <_>
          <_>
            <feature>
              <rects>
                <_>
                  16 0 4 2 -1.</_>
                <_>
                  16 0 2 1 2.</_>
                <_>
                  18 1 2 1 2.</_></rects>
              <tilted>0</tilted></feature>
            <threshold>-5.6739147112239152e-05</threshold>
            <left_val>3.2652893649988957e-01</left_val>
            <right_val>-4.0655081373665969e-01</right_val></_></_>
        <_>
          <_>
            <feature>
              <rects>
                <_>
                  4 3 9 3 -1.</_>
                <_>
                  4 4 9 1 3.</_></rects>
              <tilted>0</tilted></feature>
            <threshold>4.9438895657658577e-03</threshold>
            <left_val>-2.3255175448829843e-01</left_val>
            <right_val>5.7142013432781513e-01</right_val></_></_>
        <_>
          <_>
            <feature>
              <rects>
                <_>
                  0 0 1 2 -1.</_>
                <_>
                  0 1 1 1 2.</_></rects>
              <tilted>0</tilted></feature>
            <threshold>9.4393995823338628e-05</threshold>
            <left_val>2.0672650942603790e-01</left_val>
            <right_val>-5.5832926678467887e-01</right_val></_></_>
        <_>
          <_>
            <feature>
              <rects>
                <_>
                  9 2 5 3 -1.</_>
                <_>
                  9 3 5 1 3.</_></rects>
              <tilted>0</tilted></feature>
            <threshold>4.5172125101089478e-03</threshold>
            <left_val>-2.2598547666803326e-01</left_val>
            <right_val>5.9605762724700784e-01</right_val></_></_></trees>
      <stage_threshold>-2.1609416007995605e+00</stage_threshold>
      <parent>0</parent>
      <next>-1</next></_>
    <_>
      <trees>
        <_>
          <_>
            <feature>
              <rects>
                <_>
                  0 18 4 2 -1.</_>
                <_>
                  0 18 2 1 2.</_>
                <_>
                  2 19 2 1 2.</_></rects>
              <tilted>0</tilted></feature>
            <threshold>2.8545940294861794e-03</threshold>
            <left_val>-6.0371712080639950e-01</left_val>
            <right_val>5.0298210735586490e-01</right_val></_></_>
        <_>
          <_>
            <feature>
              <rects>
                <_>
                  1 0 7 4 -1.</_>
                <_>
                  1 2 7 2 2.</_></rects>
              <tilted>0</tilted></feature>
            <threshold>6.8872589617967606e-03</threshold>
            <left_val>-4.2987877042486816e-01</left_val>
            <right_val>3.6215869518842558e-01</right_val></_></_>
        <_>
          <_>
            <feature>
              <rects>
                <_>
                  0 6 20 14 -1.</_>
                <_>
                  0 13 20 7 2.</_></rects>
              <tilted>0</tilted></feature>
            <threshold>-1.3170775771141052e-01</threshold>
            <left_val>2.5589587827037752e-01</left_val>
            <right_val>-5.8264118574650126e-01</right_val></_></_>
        <_>
          <_>
            <feature>
              <rects>
                <_>
                  4 0 16 1 -1.</_>
                <_>
                  12 0 8 1 2.</_></rects>
              <tilted>0</tilted></feature>
            <threshold>-3.7595252506434917e-03</threshold>
            <left_val>2.2513538453359599e-01</left_val>
            <right_val>-5.8109029386299582e-01</right_val></_></_>
        <_>
          <_>
            <feature>
              <rects>
                <_>
                  0 18 4 2 -1.</_>
                <_>
                  2 18 2 2 2.</_></rects>
              <tilted>0</tilted></feature>
            <threshold>7.1855250280350447e-04</threshold>
            <left_val>-4.1967707554690897e-01</left_val>
            <right_val>3.3236206403583107e-01</right_val></_></_>
        <_>
          <_>
            <feature>
              <rects>
                <_>
                  10 1 5 3 -1.</_>
                <_>
                  10 2 5 1 3.</_></rects>
              <tilted>0</tilted></feature>
            <threshold>4.7338018193840981e-03</threshold>
            <left_val>-1.8385500783234501e-01</left_val>
            <right_val>6.2037848445496169e-01</right_val></_></_>
        <_>
          <_>
            <feature>
              <rects>
                <_>
                  0 16 20 4 -1.</_>
                <_>
                  0 18 20 2 2.</_></rects>
              <tilted>0</tilted></feature>
            <threshold>-2.1957699209451675e-02</threshold>
            <left_val>3.0830613551917041e-01</left_val>
            <right_val>-3.8020646289923266e-01</right_val></_></_>
        <_>
          <_>
            <feature>
              <rects>
                <_>
                  0 0 2 2 -1.</_>
                <_>
                  0 1 2 1 2.</_></rects>
              <tilted>0</tilted></feature>
            <threshold>-5.5902761232573539e-05</threshold>
            <left_val>2.8283462633628548e-01</left_val>
            <right_val>-4.1582039847642571e-01</right_val></_></_>
        <_>
          <_>
            <feature>
              <rects>
                <_>
                  0 0 1 2 -1.</_>
                <_>
                  0 1 1 1 2.</_></rects>
              <tilted>0</tilted></feature>
            <threshold>-2.2418011212721467e-04</threshold>
            <left_val>-6.5138211928703271e-01</left_val>
            <right_val>1.9485245633889509e-01</right_val></_></_>
        <_>
          <_>
            <feature>
              <rects>
                <_>
                  3 11 11 3 -1.</_>
                <_>
                  3 12 11 1 3.</_></rects>
              <tilted>0</tilted></feature>
            <threshold>4.8464760184288025e-03</threshold>
            <left_val>-2.3248800650293225e-01</left_val>
            <right_val>5.0760561949098604e-01</right_val></_></_>
        <_>
          <_>
            <feature>
              <rects>
                <_>
                  2 0 18 20 -1.</_>
                <_>
                  11 0 9 20 2.</_></rects>
              <tilted>0</tilted></feature>
            <threshold>-1.7803665250539780e-02</threshold>
            <left_val>1.8217576206296004e-01</left_val>
            <right_val>-6.6580829716918166e-01</right_val></_></_>
        <_>
          <_>
            <feature>
              <rects>
                <_>
                  6 13 9 3 -1.</_>
                <_>
                  6 14 9 1 3.</_></rects>
              <tilted>0</tilted></feature>
            <threshold>3.0179473105818033e-03</threshold>
            <left_val>-2.7649720430580610e-01</left_val>
            <right_val>3.9754058896352440e-01</right_val></_></_>
        <_>
          <_>
            <feature>
              <rects>
                <_>
                  5 4 3 3 -1.</_>
                <_>
                  5 5 3 1 3.</_></rects>
              <tilted>0</tilted></feature>
            <threshold>1.8286202102899551e-03</threshold>
            <left_val>-1.8166708828468778e-01</left_val>
            <right_val>5.1544722712408098e-01</right_val></_></_>
        <_>
          <_>
            <feature>
              <rects>
                <_>
                  8 0 7 3 -1.</_>
                <_>
                  8 1 7 1 3.</_></rects>
              <tilted>0</tilted></feature>
            <threshold>3.3066207543015480e-03</threshold>
            <left_val>-2.1408314938527190e-01</left_val>
            <right_val>4.3334004936466486e-01</right_val></_></_>
        <_>
          <_>
            <feature>
              <rects>
                <_>
                  10 0 4 3 -1.</_>
                <_>
                  10 1 4 1 3.</_></rects>
              <tilted>0</tilted></feature>
            <threshold>-2.4215551093220711e-03</threshold>
            <left_val>5.1840711534740425e-01</left_val>
            <right_val>-1.8031540689280223e-01</right_val></_></_>
        <_>
          <_>
            <feature>
              <rects>
                <_>
                  18 3 2 4 -1.</_>
                <_>
                  18 3 1 2 2.</_>
                <_>
                  19 5 1 2 2.</_></rects>
              <tilted>0</tilted></feature>
            <threshold>-1.6664012800902128e-03</threshold>
            <left_val>5.0190437777645835e-01</left_val>
            <right_val>-1.7518755100309560e-01</right_val></_></_>
        <_>
          <_>
            <feature>
              <rects>
                <_>
                  10 17 4 3 -1.</_>
                <_>
                  10 18 4 1 3.</_></rects>
              <tilted>0</tilted></feature>
            <threshold>2.3949174210429192e-03</threshold>
            <left_val>-1.7861966738274046e-01</left_val>
            <right_val>4.4173648246901770e-01</right_val></_></_></trees>
      <stage_threshold>-1.9655288457870483e+00</stage_threshold>
      <parent>1</parent>
      <next>-1</next></_>
    <_>
      <trees>
        <_>
          <_>
            <feature>
              <rects>
                <_>
                  0 16 2 4 -1.</_>
                <_>
                  0 16 1 2 2.</_>
                <_>
                  1 18 1 2 2.</_></rects>
              <tilted>0</tilted></feature>
            <threshold>4.7240471467375755e-03</threshold>
            <left_val>-5.7278577995706670e-01</left_val>
            <right_val>4.9849849849849859e-01</right_val></_></_>
        <_>
          <_>
            <feature>
              <rects>
                <_>
                  18 13 2 3 -1.</_>
                <_>
                  19 13 1 3 2.</_></rects>
              <tilted>0</tilted></feature>
            <threshold>-1.6449852846562862e-03</threshold>
            <left_val>3.7978524473067177e-01</left_val>
            <right_val>-3.2302010862965286e-01</right_val></_></_>
        <_>
          <_>
            <feature>
              <rects>
                <_>
                  0 2 20 18 -1.</_>
                <_>
                  0 11 20 9 2.</_></rects>
              <tilted>0</tilted></feature>
            <threshold>6.5146964043378830e-03</threshold>
            <left_val>1.5384501166215273e-01</left_val>
            <right_val>-7.6417071576254891e-01</right_val></_></_>
        <_>
          <_>
            <feature>
              <rects>
                <_>
                  10 0 10 20 -1.</_>
                <_>
                  10 10 10 10 2.</_></rects>
              <tilted>0</tilted></feature>
            <threshold>-3.3753660321235657e-01</threshold>
            <left_val>-8.5272998304613112e-01</left_val>
            <right_val>1.3575328844728091e-01</right_val></_></_>
        <_>
          <_>
            <feature>
              <rects>
                <_>
                  0 0 2 1 -1.</_>
                <_>
                  1 0 1 1 2.</_></rects>
              <tilted>0</tilted></feature>
            <threshold>2.0997208775952458e-04</threshold>
            <left_val>1.2259178496498946e-01</left_val>
            <right_val>-6.7745073951328350e-01</right_val></_></_>
        <_>
          <_>
            <feature>
              <rects>
                <_>
                  0 0 2 1 -1.</_>
                <_>
                  1 0 1 1 2.</_></rects>
              <tilted>0</tilted></feature>
            <threshold>-7.5536372605711222e-05</threshold>
            <left_val>-6.7261545631235187e-01</left_val>
            <right_val>2.5138983350024013e-01</right_val></_></_>
        <_>
          <_>
            <feature>
              <rects>
                <_>
                  0 9 20 11 -1.</_>
                <_>
                  10 9 10 11 2.</_></rects>
              <tilted>0</tilted></feature>
            <threshold>1.5409845113754272e-01</threshold>
            <left_val>5.6646041631878009e-02</left_val>
            <right_val>-8.7010261706019854e-01</right_val></_></_>
        <_>
          <_>
            <feature>
              <rects>
                <_>
                  12 0 1 3 -1.</_>
                <_>
                  12 1 1 1 3.</_></rects>
              <tilted>0</tilted></feature>
            <threshold>1.2898063287138939e-03</threshold>
            <left_val>-1.9895514561519972e-01</left_val>
            <right_val>4.6185867013216775e-01</right_val></_></_>
        <_>
          <_>
            <feature>
              <rects>
                <_>
                  13 0 2 1 -1.</_>
                <_>
                  14 0 1 1 2.</_></rects>
              <tilted>0</tilted></feature>
            <threshold>-5.5103235354181379e-05</threshold>
            <left_val>1.9332714300381226e-01</left_val>
            <right_val>-4.3510745601728085e-01</right_val></_></_>
        <_>
          <_>
            <feature>
              <rects>
                <_>
                  1 6 3 4 -1.</_>
                <_>
                  2 6 1 4 3.</_></rects>
              <tilted>0</tilted></feature>
            <threshold>1.9205426797270775e-03</threshold>
            <left_val>-1.9781606106410413e-01</left_val>
            <right_val>4.1547861897665322e-01</right_val></_></_>
        <_>
          <_>
            <feature>
              <rects>
                <_>
                  1 5 3 6 -1.</_>
                <_>
                  2 5 1 6 3.</_></rects>
              <tilted>0</tilted></feature>
            <threshold>-4.9817878752946854e-03</threshold>
            <left_val>5.5594171376535684e-01</left_val>
            <right_val>-1.5644684771378140e-01</right_val></_></_>
        <_>
          <_>
            <feature>
              <rects>
                <_>
                  19 0 1 2 -1.</_>
                <_>
                  19 1 1 1 2.</_></rects>
              <tilted>0</tilted></feature>
            <threshold>7.7525430242531002e-05</threshold>
            <left_val>2.0269023388235921e-01</left_val>
            <right_val>-4.2113622942320911e-01</right_val></_></_>
        <_>
          <_>
            <feature>
              <rects>
                <_>
                  10 18 6 2 -1.</_>
                <_>
                  10 19 6 1 2.</_></rects>
              <tilted>0</tilted></feature>
            <threshold>-2.4699235800653696e-03</threshold>
            <left_val>2.7412750963415017e-01</left_val>
            <right_val>-3.0036877480418045e-01</right_val></_></_>
        <_>
          <_>
            <feature>
              <rects>
                <_>
                  0 0 1 20 -1.</_>
                <_>
                  0 10 1 10 2.</_></rects>
              <tilted>0</tilted></feature>
            <threshold>-1.0883172508329153e-03</threshold>
            <left_val>1.5514092162192591e-01</left_val>
            <right_val>-5.1521878739131399e-01</right_val></_></_>
        <_>
          <_>
            <feature>
              <rects>
                <_>
                  19 0 1 2 -1.</_>
                <_>
                  19 1 1 1 2.</_></rects>
              <tilted>0</tilted></feature>
            <threshold>-7.0234353188425303e-04</threshold>
            <left_val>-7.3288986328169980e-01</left_val>
            <right_val>9.1240163807062027e-02</right_val></_></_>
        <_>
          <_>
            <feature>
              <rects>
                <_>
                  8 0 6 2 -1.</_>
                <_>
                  8 0 3 1 2.</_>
                <_>
                  11 1 3 1 2.</_></rects>
              <tilted>0</tilted></feature>
            <threshold>-2.7834633365273476e-03</threshold>
            <left_val>4.4146523600526838e-01</left_val>
            <right_val>-1.7976276510430061e-01</right_val></_></_>
        <_>
          <_>
            <feature>
              <rects>
                <_>
                  19 5 1 2 -1.</_>
                <_>
                  19 6 1 1 2.</_></rects>
              <tilted>0</tilted></feature>
            <threshold>2.3359281476587057e-04</threshold>
            <left_val>-2.1194838639222111e-01</left_val>
            <right_val>3.3125459564231879e-01</right_val></_></_>
        <_>
          <_>
            <feature>
              <rects>
                <_>
                  6 0 2 4 -1.</_>
                <_>
                  6 0 1 2 2.</_>
                <_>
                  7 2 1 2 2.</_></rects>
              <tilted>0</tilted></feature>
            <threshold>-1.8472515512257814e-03</threshold>
            <left_val>5.0269704202065191e-01</left_val>
            <right_val>-1.4446664266752304e-01</right_val></_></_>
        <_>
          <_>
            <feature>
              <rects>
                <_>
                  11 2 8 3 -1.</_>
                <_>
                  11 3 8 1 3.</_></rects>
              <tilted>0</tilted></feature>
            <threshold>3.2004092354327440e-03</threshold>
            <left_val>-2.0782814580105546e-01</left_val>
            <right_val>3.7311928707625397e-01</right_val></_></_>
        <_>
          <_>
            <feature>
              <rects>
                <_>
                  18 4 2 6 -1.</_>
                <_>
                  18 4 1 3 2.</_>
                <_>
                  19 7 1 3 2.</_></rects>
              <tilted>0</tilted></feature>
            <threshold>-1.1007632128894329e-03</threshold>
            <left_val>3.4463075607870014e-01</left_val>
            <right_val>-2.1497637009114443e-01</right_val></_></_>
        <_>
          <_>
            <feature>
              <rects>
                <_>
                  9 15 7 3 -1.</_>
                <_>
                  9 16 7 1 3.</_></rects>
              <tilted>0</tilted></feature>
            <threshold>3.4852293320000172e-03</threshold>
            <left_val>-1.7184897345071420e-01</left_val>
            <right_val>4.1593098842900511e-01</right_val></_></_>
        <_>
          <_>
            <feature>
              <rects>
                <_>
                  0 0 1 2 -1.</_>
                <_>
                  0 1 1 1 2.</_></rects>
              <tilted>0</tilted></feature>
            <threshold>1.7441977979615331e-04</threshold>
            <left_val>1.5236202090064799e-01</left_val>
            <right_val>-4.9899537200205013e-01</right_val></_></_>
        <_>
          <_>
            <feature>
              <rects>
                <_>
                  0 18 1 2 -1.</_>
                <_>
                  0 19 1 1 2.</_></rects>
              <tilted>0</tilted></feature>
            <threshold>-1.1173977691214532e-04</threshold>
            <left_val>1.8956560236775602e-01</left_val>
            <right_val>-3.8296884128480291e-01</right_val></_></_></trees>
      <stage_threshold>-2.1409339904785156e+00</stage_threshold>
      <parent>2</parent>
      <next>-1</next></_>
    <_>
      <trees>
        <_>
          <_>
            <feature>
              <rects>
                <_>
                  0 19 2 1 -1.</_>
                <_>
                  1 19 1 1 2.</_></rects>
              <tilted>0</tilted></feature>
            <threshold>3.8749319501221180e-03</threshold>
            <left_val>-5.5488266464796510e-01</left_val>
            <right_val>4.7166799680766164e-01</right_val></_></_>
        <_>
          <_>
            <feature>
              <rects>
                <_>
                  18 0 2 1 -1.</_>
                <_>
                  19 0 1 1 2.</_></rects>
              <tilted>0</tilted></feature>
            <threshold>-1.5979714225977659e-04</threshold>
            <left_val>-5.6706612905606313e-01</left_val>
            <right_val>1.3959574492738810e-01</right_val></_></_>
        <_>
          <_>
            <feature>
              <rects>
                <_>
                  0 0 1 2 -1.</_>
                <_>
                  0 1 1 1 2.</_></rects>
              <tilted>0</tilted></feature>
            <threshold>-2.7694524032995105e-04</threshold>
            <left_val>-6.9570295011884142e-01</left_val>
            <right_val>1.3653933357775544e-01</right_val></_></_>
        <_>
          <_>
            <feature>
              <rects>
                <_>
                  0 0 1 2 -1.</_>
                <_>
                  0 1 1 1 2.</_></rects>
              <tilted>0</tilted></feature>
            <threshold>-5.1548053306760266e-05</threshold>
            <left_val>3.0499039429256924e-01</left_val>
            <right_val>-3.4767991192390757e-01</right_val></_></_>
        <_>
          <_>
            <feature>
              <rects>
                <_>
                  16 1 4 7 -1.</_>
                <_>
                  18 1 2 7 2.</_></rects>
              <tilted>0</tilted></feature>
            <threshold>-9.4201527535915375e-03</threshold>
            <left_val>3.6367460618460101e-01</left_val>
            <right_val>-3.1041307401355239e-01</right_val></_></_>
        <_>
          <_>
            <feature>
              <rects>
                <_>
                  0 0 7 4 -1.</_>
                <_>
                  0 2 7 2 2.</_></rects>
              <tilted>0</tilted></feature>
            <threshold>2.7210831176489592e-03</threshold>
            <left_val>-3.5938418051080556e-01</left_val>
            <right_val>2.4304529751426593e-01</right_val></_></_>
        <_>
          <_>
            <feature>
              <rects>
                <_>
                  0 0 2 2 -1.</_>
                <_>
                  1 0 1 2 2.</_></rects>
              <tilted>0</tilted></feature>
            <threshold>-7.1518436016049236e-05</threshold>
            <left_val>-4.4902333841505288e-01</left_val>
            <right_val>1.6338855528135030e-01</right_val></_></_>
        <_>
          <_>
            <feature>
              <rects>
                <_>
                  0 0 2 1 -1.</_>
                <_>
                  1 0 1 1 2.</_></rects>
              <tilted>0</tilted></feature>
            <threshold>3.5805939114652574e-04</threshold>
            <left_val>1.4955208261593156e-01</left_val>
            <right_val>-6.4744615212909562e-01</right_val></_></_>
        <_>
          <_>
            <feature>
              <rects>
                <_>
                  1 4 6 9 -1.</_>
                <_>
                  3 4 2 9 3.</_></rects>
              <tilted>0</tilted></feature>
            <threshold>-1.7815750092267990e-02</threshold>
            <left_val>4.3296213286089852e-01</left_val>
            <right_val>-1.7361867261531289e-01</right_val></_></_>
        <_>
          <_>
            <feature>
              <rects>
                <_>
                  0 0 20 10 -1.</_>
                <_>
                  10 0 10 10 2.</_></rects>
              <tilted>0</tilted></feature>
            <threshold>-2.8905723243951797e-02</threshold>
            <left_val>1.3827135530286114e-01</left_val>
            <right_val>-5.3810412758962511e-01</right_val></_></_>
        <_>
          <_>
            <feature>
              <rects>
                <_>
                  0 1 4 6 -1.</_>
                <_>
                  0 1 2 3 2.</_>
                <_>
                  2 4 2 3 2.</_></rects>
              <tilted>0</tilted></feature>
            <threshold>7.2892839089035988e-03</threshold>
            <left_val>-1.8328886125848209e-01</left_val>
            <right_val>4.5394080235712508e-01</right_val></_></_>
        <_>
          <_>
            <feature>
              <rects>
                <_>
                  0 12 19 8 -1.</_>
                <_>
                  0 16 19 4 2.</_></rects>
              <tilted>0</tilted></feature>
            <threshold>-8.0981910228729248e-02</threshold>
            <left_val>2.3576142878747811e-01</left_val>
            <right_val>-3.2233790161610137e-01</right_val></_></_>
        <_>
          <_>
            <feature>
              <rects>
                <_>
                  3 3 9 12 -1.</_>
                <_>
                  6 3 3 12 3.</_></rects>
              <tilted>0</tilted></feature>
            <threshold>-4.0327757596969604e-02</threshold>
            <left_val>4.3136070603507909e-01</left_val>
            <right_val>-1.8089774749547072e-01</right_val></_></_>
        <_>
          <_>
            <feature>
              <rects>
                <_>
                  2 3 12 8 -1.</_>
                <_>
                  6 3 4 8 3.</_></rects>
              <tilted>0</tilted></feature>
            <threshold>1.1036252975463867e-01</threshold>
            <left_val>-1.1807014465800514e-01</left_val>
            <right_val>5.4210079438052938e-01</right_val></_></_>
        <_>
          <_>
            <feature>
              <rects>
                <_>
                  0 18 4 2 -1.</_>
                <_>
                  2 18 2 2 2.</_></rects>
              <tilted>0</tilted></feature>
            <threshold>1.1469103628769517e-03</threshold>
            <left_val>-2.9837991125880348e-01</left_val>
            <right_val>2.3835787874473477e-01</right_val></_></_>
        <_>
          <_>
            <feature>
              <rects>
                <_>
                  3 3 12 10 -1.</_>
                <_>
                  3 3 6 5 2.</_>
                <_>
                  9 8 6 5 2.</_></rects>
              <tilted>0</tilted></feature>
            <threshold>-7.9885892570018768e-02</threshold>
            <left_val>5.8679940504337313e-01</left_val>
            <right_val>-1.1976762729105803e-01</right_val></_></_>
        <_>
          <_>
            <feature>
              <rects>
                <_>
                  10 12 1 2 -1.</_>
                <_>
                  10 13 1 1 2.</_></rects>
              <tilted>0</tilted></feature>
            <threshold>-5.8504665503278375e-05</threshold>
            <left_val>2.0897090853035255e-01</left_val>
            <right_val>-3.2515050463902206e-01</right_val></_></_>
        <_>
          <_>
            <feature>
              <rects>
                <_>
                  4 5 12 9 -1.</_>
                <_>
                  8 5 4 9 3.</_></rects>
              <tilted>0</tilted></feature>
            <threshold>-8.2083269953727722e-02</threshold>
            <left_val>5.0615268802383762e-01</left_val>
            <right_val>-1.4346695281764382e-01</right_val></_></_>
        <_>
          <_>
            <feature>
              <rects>
                <_>
                  19 2 1 2 -1.</_>
                <_>
                  19 3 1 1 2.</_></rects>
              <tilted>0</tilted></feature>
            <threshold>-9.4583272584713995e-05</threshold>
            <left_val>-4.1902982423686291e-01</left_val>
            <right_val>1.6428291698128081e-01</right_val></_></_>
        <_>
          <_>
            <feature>
              <rects>
                <_>
                  0 8 18 12 -1.</_>
                <_>
                  9 8 9 12 2.</_></rects>
              <tilted>0</tilted></feature>
            <threshold>-2.8707754611968994e-01</threshold>
            <left_val>-6.5019193634583061e-01</left_val>
            <right_val>9.5880331043925515e-02</right_val></_></_>
        <_>
          <_>
            <feature>
              <rects>
                <_>
                  6 0 14 20 -1.</_>
                <_>
                  13 0 7 20 2.</_></rects>
              <tilted>0</tilted></feature>
            <threshold>-1.4049172401428223e-02</threshold>
            <left_val>9.1071278968468186e-02</left_val>
            <right_val>-6.1347368691695603e-01</right_val></_></_>
        <_>
          <_>
            <feature>
              <rects>
                <_>
                  17 2 3 18 -1.</_>
                <_>
                  17 11 3 9 2.</_></rects>
              <tilted>0</tilted></feature>
            <threshold>5.1738813519477844e-02</threshold>
            <left_val>7.5614679728423645e-02</left_val>
            <right_val>-6.8526015969845921e-01</right_val></_></_>
        <_>
          <_>
            <feature>
              <rects>
                <_>
                  0 0 2 1 -1.</_>
                <_>
                  1 0 1 1 2.</_></rects>
              <tilted>0</tilted></feature>
            <threshold>4.7554240154568106e-05</threshold>
            <left_val>-2.6536277736217717e-01</left_val>
            <right_val>2.1136337745059133e-01</right_val></_></_>
        <_>
          <_>
            <feature>
              <rects>
                <_>
                  13 2 2 4 -1.</_>
                <_>
                  13 2 1 2 2.</_>
                <_>
                  14 4 1 2 2.</_></rects>
              <tilted>0</tilted></feature>
            <threshold>-1.9940736237913370e-03</threshold>
            <left_val>4.5627276568109892e-01</left_val>
            <right_val>-1.2780436642849388e-01</right_val></_></_>
        <_>
          <_>
            <feature>
              <rects>
                <_>
                  9 18 4 2 -1.</_>
                <_>
                  9 18 2 1 2.</_>
                <_>
                  11 19 2 1 2.</_></rects>
              <tilted>0</tilted></feature>
            <threshold>-1.5148716047406197e-03</threshold>
            <left_val>3.9385250448583620e-01</left_val>
            <right_val>-1.3909592439813354e-01</right_val></_></_>
        <_>
          <_>
            <feature>
              <rects>
                <_>
                  5 5 4 9 -1.</_>
                <_>
                  5 8 4 3 3.</_></rects>
              <tilted>0</tilted></feature>
            <threshold>-1.6649462282657623e-02</threshold>
            <left_val>3.8323546182291340e-01</left_val>
            <right_val>-1.5829312303931603e-01</right_val></_></_>
        <_>
          <_>
            <feature>
              <rects>
                <_>
                  13 18 2 2 -1.</_>
                <_>
                  13 18 1 1 2.</_>
                <_>
                  14 19 1 1 2.</_></rects>
              <tilted>0</tilted></feature>
            <threshold>-1.0898230830207467e-03</threshold>
            <left_val>5.0795437620605033e-01</left_val>
            <right_val>-1.1208160218936881e-01</right_val></_></_>
        <_>
          <_>
            <feature>
              <rects>
                <_>
                  0 19 6 1 -1.</_>
                <_>
                  3 19 3 1 2.</_></rects>
              <tilted>0</tilted></feature>
            <threshold>1.3906640931963921e-02</threshold>
            <left_val>7.0316796414735566e-02</left_val>
            <right_val>-8.5943891159350949e-01</right_val></_></_>
        <_>
          <_>
            <feature>
              <rects>
                <_>
                  2 6 3 7 -1.</_>
                <_>
                  3 6 1 7 3.</_></rects>
              <tilted>0</tilted></feature>
            <threshold>4.4401055201888084e-03</threshold>
            <left_val>-1.6925510924328641e-01</left_val>
            <right_val>3.3467391621621501e-01</right_val></_></_></trees>
      <stage_threshold>-1.9286710023880005e+00</stage_threshold>
      <parent>3</parent>
      <next>-1</next></_>
    <_>
      <trees>
        <_>
          <_>
            <feature>
              <rects>
                <_>
                  0 18 4 2 -1.</_>
                <_>
                  0 18 2 1 2.</_>
                <_>
                  2 19 2 1 2.</_></rects>
              <tilted>0</tilted></feature>
            <threshold>3.7701632827520370e-03</threshold>
            <left_val>-5.5336032388660861e-01</left_val>
            <right_val>2.0380273321449802e-01</right_val></_></_>
        <_>
          <_>
            <feature>
              <rects>
                <_>
                  0 0 2 2 -1.</_>
                <_>
                  0 1 2 1 2.</_></rects>
              <tilted>0</tilted></feature>
            <threshold>-5.4336960602086037e-05</threshold>
            <left_val>1.9695424461472494e-01</left_val>
            <right_val>-4.4441144099488722e-01</right_val></_></_>
        <_>
          <_>
            <feature>
              <rects>
                <_>
                  0 0 2 2 -1.</_>
                <_>
                  0 1 2 1 2.</_></rects>
              <tilted>0</tilted></feature>
            <threshold>-2.8907269006595016e-04</threshold>
            <left_val>-5.1732718483758944e-01</left_val>
            <right_val>1.7895357560276198e-01</right_val></_></_>
        <_>
          <_>
            <feature>
              <rects>
                <_>
                  13 0 1 3 -1.</_>
                <_>
                  13 1 1 1 3.</_></rects>
              <tilted>0</tilted></feature>
            <threshold>1.0235693771392107e-03</threshold>
            <left_val>-2.0553553744575043e-01</left_val>
            <right_val>4.3929936694437866e-01</right_val></_></_>
        <_>
          <_>
            <feature>
              <rects>
                <_>
                  0 0 7 20 -1.</_>
                <_>
                  0 10 7 10 2.</_></rects>
              <tilted>0</tilted></feature>
            <threshold>-5.1969606429338455e-02</threshold>
            <left_val>1.7949628600075562e-01</left_val>
            <right_val>-4.8272540637015038e-01</right_val></_></_>
        <_>
          <_>
            <feature>
              <rects>
                <_>
                  17 1 2 2 -1.</_>
                <_>
                  17 1 1 1 2.</_>
                <_>
                  18 2 1 1 2.</_></rects>
              <tilted>0</tilted></feature>
            <threshold>-5.8357985835755244e-05</threshold>
            <left_val>3.0230172193456684e-01</left_val>
            <right_val>-2.4591373729116994e-01</right_val></_></_>
        <_>
          <_>
            <feature>
              <rects>
                <_>
                  0 14 1 6 -1.</_>
                <_>
                  0 17 1 3 2.</_></rects>
              <tilted>0</tilted></feature>
            <threshold>-1.0063339723274112e-03</threshold>
            <left_val>1.3752424081315701e-01</left_val>
            <right_val>-4.7232341620173529e-01</right_val></_></_>
        <_>
          <_>
            <feature>
              <rects>
                <_>
                  3 0 4 9 -1.</_>
                <_>
                  3 3 4 3 3.</_></rects>
              <tilted>0</tilted></feature>
            <threshold>3.5533010959625244e-02</threshold>
            <left_val>-1.7608098896723770e-01</left_val>
            <right_val>4.0191738680324818e-01</right_val></_></_>
        <_>
          <_>
            <feature>
              <rects>
                <_>
                  18 14 2 1 -1.</_>
                <_>
                  19 14 1 1 2.</_></rects>
              <tilted>0</tilted></feature>
            <threshold>-4.8773610615171492e-04</threshold>
            <left_val>2.9693437705503622e-01</left_val>
            <right_val>-2.2678949097942691e-01</right_val></_></_>
        <_>
          <_>
            <feature>
              <rects>
                <_>
                  2 9 18 11 -1.</_>
                <_>
                  11 9 9 11 2.</_></rects>
              <tilted>0</tilted></feature>
            <threshold>4.5726738870143890e-02</threshold>
            <left_val>1.0420720407349310e-01</left_val>
            <right_val>-6.0182729791638467e-01</right_val></_></_>
        <_>
          <_>
            <feature>
              <rects>
                <_>
                  13 1 4 2 -1.</_>
                <_>
                  13 1 2 1 2.</_>
                <_>
                  15 2 2 1 2.</_></rects>
              <tilted>0</tilted></feature>
            <threshold>-1.7991138156503439e-03</threshold>
            <left_val>4.2283114288631551e-01</left_val>
            <right_val>-1.5670589706514607e-01</right_val></_></_>
        <_>
          <_>
            <feature>
              <rects>
                <_>
                  12 0 4 1 -1.</_>
                <_>
                  14 0 2 1 2.</_></rects>
              <tilted>0</tilted></feature>
            <threshold>-1.8796962103806436e-04</threshold>
            <left_val>1.7407589076711780e-01</left_val>
            <right_val>-4.4420043144743931e-01</right_val></_></_>
        <_>
          <_>
            <feature>
              <rects>
                <_>
                  0 0 1 2 -1.</_>
                <_>
                  0 1 1 1 2.</_></rects>
              <tilted>0</tilted></feature>
            <threshold>9.0886904217768461e-05</threshold>
            <left_val>1.4861057038331593e-01</left_val>
            <right_val>-4.4162977071141379e-01</right_val></_></_>
        <_>
          <_>
            <feature>
              <rects>
                <_>
                  14 18 1 2 -1.</_>
                <_>
                  14 19 1 1 2.</_></rects>
              <tilted>0</tilted></feature>
            <threshold>-3.9957289118319750e-04</threshold>
            <left_val>2.2859535338140313e-01</left_val>
            <right_val>-2.5835294809477244e-01</right_val></_></_>
        <_>
          <_>
            <feature>
              <rects>
                <_>
                  2 6 12 10 -1.</_>
                <_>
                  2 6 6 5 2.</_>
                <_>
                  8 11 6 5 2.</_></rects>
              <tilted>0</tilted></feature>
            <threshold>-8.9799687266349792e-02</threshold>
            <left_val>6.1106774003594611e-01</left_val>
            <right_val>-8.8133576426574989e-02</right_val></_></_>
        <_>
          <_>
            <feature>
              <rects>
                <_>
                  8 2 6 9 -1.</_>
                <_>
                  8 5 6 3 3.</_></rects>
              <tilted>0</tilted></feature>
            <threshold>-3.1151276081800461e-02</threshold>
            <left_val>4.0306582222290177e-01</left_val>
            <right_val>-1.2170340092892171e-01</right_val></_></_>
        <_>
          <_>
            <feature>
              <rects>
                <_>
                  7 0 6 12 -1.</_>
                <_>
                  7 4 6 4 3.</_></rects>
              <tilted>0</tilted></feature>
            <threshold>1.0937210917472839e-01</threshold>
            <left_val>-1.4446781107839901e-01</left_val>
            <right_val>5.3860482577400748e-01</right_val></_></_>
        <_>
          <_>
            <feature>
              <rects>
                <_>
                  17 0 3 2 -1.</_>
                <_>
                  17 1 3 1 2.</_></rects>
              <tilted>0</tilted></feature>
            <threshold>-2.2041685879230499e-03</threshold>
            <left_val>-7.2466559629849014e-01</left_val>
            <right_val>9.1031397132347272e-02</right_val></_></_>
        <_>
          <_>
            <feature>
              <rects>
                <_>
                  19 0 1 2 -1.</_>
                <_>
                  19 1 1 1 2.</_></rects>
              <tilted>0</tilted></feature>
            <threshold>7.1924427174963057e-05</threshold>
            <left_val>1.4055809084472748e-01</left_val>
            <right_val>-3.7694771372676994e-01</right_val></_></_>
        <_>
          <_>
            <feature>
              <rects>
                <_>
                  4 0 8 9 -1.</_>
                <_>
                  4 3 8 3 3.</_></rects>
              <tilted>0</tilted></feature>
            <threshold>-1.8809562548995018e-02</threshold>
            <left_val>3.7973230706039601e-01</left_val>
            <right_val>-1.4535606198876116e-01</right_val></_></_>
        <_>
          <_>
            <feature>
              <rects>
                <_>
                  0 0 1 20 -1.</_>
                <_>
                  0 10 1 10 2.</_></rects>
              <tilted>0</tilted></feature>
            <threshold>5.3740912117063999e-03</threshold>
            <left_val>1.0182268881674048e-01</left_val>
            <right_val>-5.5350967712041310e-01</right_val></_></_>
        <_>
          <_>
            <feature>
              <rects>
                <_>
                  7 0 2 4 -1.</_>
                <_>
                  7 2 2 2 2.</_></rects>
              <tilted>0</tilted></feature>
            <threshold>1.2690913863480091e-03</threshold>
            <left_val>-2.6628903581186725e-01</left_val>
            <right_val>2.1552053901792234e-01</right_val></_></_>
        <_>
          <_>
            <feature>
              <rects>
                <_>
                  18 9 2 6 -1.</_>
                <_>
                  18 9 1 3 2.</_>
                <_>
                  19 12 1 3 2.</_></rects>
              <tilted>0</tilted></feature>
            <threshold>3.0875196680426598e-03</threshold>
            <left_val>-1.2203053889984419e-01</left_val>
            <right_val>4.2462433501286267e-01</right_val></_></_>
        <_>
          <_>
            <feature>
              <rects>
                <_>
                  4 2 4 2 -1.</_>
                <_>
                  4 2 2 1 2.</_>
                <_>
                  6 3 2 1 2.</_></rects>
              <tilted>0</tilted></feature>
            <threshold>-2.2954037413001060e-03</threshold>
            <left_val>4.2633900263283531e-01</left_val>
            <right_val>-1.0441372000286822e-01</right_val></_></_>
        <_>
          <_>
            <feature>
              <rects>
                <_>
                  0 0 1 2 -1.</_>
                <_>
                  0 1 1 1 2.</_></rects>
              <tilted>0</tilted></feature>
            <threshold>-1.4561241550836712e-04</threshold>
            <left_val>-3.8657286669374297e-01</left_val>
            <right_val>1.3009883234618219e-01</right_val></_></_>
        <_>
          <_>
            <feature>
              <rects>
                <_>
                  9 17 1 2 -1.</_>
                <_>
                  9 18 1 1 2.</_></rects>
              <tilted>0</tilted></feature>
            <threshold>-1.3143823889549822e-04</threshold>
            <left_val>1.7039507488118413e-01</left_val>
            <right_val>-2.7849929898850417e-01</right_val></_></_>
        <_>
          <_>
            <feature>
              <rects>
                <_>
                  5 7 12 10 -1.</_>
                <_>
                  5 7 6 5 2.</_>
                <_>
                  11 12 6 5 2.</_></rects>
              <tilted>0</tilted></feature>
            <threshold>8.6898341774940491e-02</threshold>
            <left_val>-1.0791386217477664e-01</left_val>
            <right_val>4.7660897459186902e-01</right_val></_></_>
        <_>
          <_>
            <feature>
              <rects>
                <_>
                  13 12 1 2 -1.</_>
                <_>
                  13 13 1 1 2.</_></rects>
              <tilted>0</tilted></feature>
            <threshold>-4.7887908294796944e-05</threshold>
            <left_val>1.8942489272972995e-01</left_val>
            <right_val>-2.9841164043112200e-01</right_val></_></_>
        <_>
          <_>
            <feature>
              <rects>
                <_>
                  2 9 15 1 -1.</_>
                <_>
                  7 9 5 1 3.</_></rects>
              <tilted>0</tilted></feature>
            <threshold>-2.5411494076251984e-02</threshold>
            <left_val>5.8162364066718319e-01</left_val>
            <right_val>-9.6008469523688689e-02</right_val></_></_>
        <_>
          <_>
            <feature>
              <rects>
                <_>
                  0 18 2 2 -1.</_>
                <_>
                  0 19 2 1 2.</_></rects>
              <tilted>0</tilted></feature>
            <threshold>-6.0072685591876507e-03</threshold>
            <left_val>-8.2340536531480413e-01</left_val>
            <right_val>7.0414204964193844e-02</right_val></_></_>
        <_>
          <_>
            <feature>
              <rects>
                <_>
                  10 2 3 9 -1.</_>
                <_>
                  11 2 1 9 3.</_></rects>
              <tilted>0</tilted></feature>
            <threshold>3.4850928932428360e-03</threshold>
            <left_val>-1.7928111478653147e-01</left_val>
            <right_val>2.9373086725351971e-01</right_val></_></_>
        <_>
          <_>
            <feature>
              <rects>
                <_>
                  14 7 6 3 -1.</_>
                <_>
                  14 8 6 1 3.</_></rects>
              <tilted>0</tilted></feature>
            <threshold>1.8198641482740641e-03</threshold>
            <left_val>-1.6634882991122685e-01</left_val>
            <right_val>2.8979192987680863e-01</right_val></_></_>
        <_>
          <_>
            <feature>
              <rects>
                <_>
                  0 6 2 2 -1.</_>
                <_>
                  0 6 1 1 2.</_>
                <_>
                  1 7 1 1 2.</_></rects>
              <tilted>0</tilted></feature>
            <threshold>-8.0907635856419802e-04</threshold>
            <left_val>4.0781726620913422e-01</left_val>
            <right_val>-1.2199979070493953e-01</right_val></_></_>
        <_>
          <_>
            <feature>
              <rects>
                <_>
                  0 0 3 1 -1.</_>
                <_>
                  1 0 1 1 3.</_></rects>
              <tilted>0</tilted></feature>
            <threshold>1.6231101471930742e-03</threshold>
            <left_val>6.9744877249091494e-02</left_val>
            <right_val>-8.2664539131040660e-01</right_val></_></_>
        <_>
          <_>
            <feature>
              <rects>
                <_>
                  0 4 2 2 -1.</_>
                <_>
                  0 4 1 1 2.</_>
                <_>
                  1 5 1 1 2.</_></rects>
              <tilted>0</tilted></feature>
            <threshold>-1.0530608706176281e-03</threshold>
            <left_val>4.4409172524930102e-01</left_val>
            <right_val>-1.1535021951054715e-01</right_val></_></_>
        <_>
          <_>
            <feature>
              <rects>
                <_>
                  1 0 1 2 -1.</_>
                <_>
                  1 1 1 1 2.</_></rects>
              <tilted>0</tilted></feature>
            <threshold>-5.4335920140147209e-05</threshold>
            <left_val>2.2915668286369492e-01</left_val>
            <right_val>-2.1197427468716321e-01</right_val></_></_></trees>
      <stage_threshold>-2.0813257694244385e+00</stage_threshold>
      <parent>4</parent>
      <next>-1</next></_>
    <_>
      <trees>
        <_>
          <_>
            <feature>
              <rects>
                <_>
                  0 18 2 2 -1.</_>
                <_>
                  1 18 1 2 2.</_></rects>
              <tilted>0</tilted></feature>
            <threshold>6.1454828828573227e-03</threshold>
            <left_val>-5.4681353265142496e-01</left_val>
            <right_val>2.6679973386560218e-01</right_val></_></_>
        <_>
          <_>
            <feature>
              <rects>
                <_>
                  0 0 2 1 -1.</_>
                <_>
                  1 0 1 1 2.</_></rects>
              <tilted>0</tilted></feature>
            <threshold>2.0326909725554287e-04</threshold>
            <left_val>9.0060725498671210e-02</left_val>
            <right_val>-6.6251736000086880e-01</right_val></_></_>
        <_>
          <_>
            <feature>
              <rects>
                <_>
                  0 0 2 1 -1.</_>
                <_>
                  1 0 1 1 2.</_></rects>
              <tilted>0</tilted></feature>
            <threshold>-7.5568103056866676e-05</threshold>
            <left_val>-5.5041555888910776e-01</left_val>
            <right_val>1.3666750104746364e-01</right_val></_></_>
        <_>
          <_>
            <feature>
              <rects>
                <_>
                  0 2 6 3 -1.</_>
                <_>
                  3 2 3 3 2.</_></rects>
              <tilted>0</tilted></feature>
            <threshold>6.1243809759616852e-03</threshold>
            <left_val>-2.5256274323810513e-01</left_val>
            <right_val>2.7517026647689669e-01</right_val></_></_>
        <_>
          <_>
            <feature>
              <rects>
                <_>
                  0 0 1 20 -1.</_>
                <_>
                  0 10 1 10 2.</_></rects>
              <tilted>0</tilted></feature>
            <threshold>-1.3429088518023491e-02</threshold>
            <left_val>1.9830251309314706e-01</left_val>
            <right_val>-3.5616944319169985e-01</right_val></_></_>
        <_>
          <_>
            <feature>
              <rects>
                <_>
                  0 0 20 2 -1.</_>
                <_>
                  0 1 20 1 2.</_></rects>
              <tilted>0</tilted></feature>
            <threshold>6.7929150536656380e-03</threshold>
            <left_val>-2.4252754748411004e-01</left_val>
            <right_val>2.7864778990419603e-01</right_val></_></_>
        <_>
          <_>
            <feature>
              <rects>
                <_>
                  18 0 1 2 -1.</_>
                <_>
                  18 1 1 1 2.</_></rects>
              <tilted>0</tilted></feature>
            <threshold>1.4628560165874660e-04</threshold>
            <left_val>1.7026069444184860e-01</left_val>
            <right_val>-3.7314358493946886e-01</right_val></_></_>
        <_>
          <_>
            <feature>
              <rects>
                <_>
                  0 18 1 2 -1.</_>
                <_>
                  0 19 1 1 2.</_></rects>
              <tilted>0</tilted></feature>
            <threshold>-1.8713597091846168e-04</threshold>
            <left_val>1.7516656791323515e-01</left_val>
            <right_val>-3.2185996382967996e-01</right_val></_></_>
        <_>
          <_>
            <feature>
              <rects>
                <_>
                  0 16 2 4 -1.</_>
                <_>
                  1 16 1 4 2.</_></rects>
              <tilted>0</tilted></feature>
            <threshold>1.2283097952604294e-02</threshold>
            <left_val>6.4752234727532262e-02</left_val>
            <right_val>-8.9250946085559313e-01</right_val></_></_>
        <_>
          <_>
            <feature>
              <rects>
                <_>
                  18 12 2 7 -1.</_>
                <_>
                  19 12 1 7 2.</_></rects>
              <tilted>0</tilted></feature>
            <threshold>-2.6683122850954533e-03</threshold>
            <left_val>2.2959044344191895e-01</left_val>
            <right_val>-2.4260409382226847e-01</right_val></_></_>
        <_>
          <_>
            <feature>
              <rects>
                <_>
                  5 0 7 6 -1.</_>
                <_>
                  5 2 7 2 3.</_></rects>
              <tilted>0</tilted></feature>
            <threshold>-1.2946614995598793e-02</threshold>
            <left_val>3.8207577159664358e-01</left_val>
            <right_val>-1.3671833578055903e-01</right_val></_></_>
        <_>
          <_>
            <feature>
              <rects>
                <_>
                  18 0 1 2 -1.</_>
                <_>
                  18 1 1 1 2.</_></rects>
              <tilted>0</tilted></feature>
            <threshold>-7.0551724638789892e-04</threshold>
            <left_val>-7.1617788747544953e-01</left_val>
            <right_val>7.0614856283891636e-02</right_val></_></_>
        <_>
          <_>
            <feature>
              <rects>
                <_>
                  13 0 6 2 -1.</_>
                <_>
                  13 0 3 1 2.</_>
                <_>
                  16 1 3 1 2.</_></rects>
              <tilted>0</tilted></feature>
            <threshold>-3.5186384338885546e-03</threshold>
            <left_val>3.8773152985795056e-01</left_val>
            <right_val>-1.3685807632574101e-01</right_val></_></_>
        <_>
          <_>
            <feature>
              <rects>
                <_>
                  0 0 1 3 -1.</_>
                <_>
                  0 1 1 1 3.</_></rects>
              <tilted>0</tilted></feature>
            <threshold>1.7709191888570786e-04</threshold>
            <left_val>1.1718712193702066e-01</left_val>
            <right_val>-4.3232471353291985e-01</right_val></_></_>
        <_>
          <_>
            <feature>
              <rects>
                <_>
                  0 0 1 4 -1.</_>
                <_>
                  0 2 1 2 2.</_></rects>
              <tilted>0</tilted></feature>
            <threshold>-5.3654184739571065e-05</threshold>
            <left_val>2.1925860383413953e-01</left_val>
            <right_val>-2.4502541030385661e-01</right_val></_></_>
        <_>
          <_>
            <feature>
              <rects>
                <_>
                  0 2 4 4 -1.</_>
                <_>
                  0 2 2 2 2.</_>
                <_>
                  2 4 2 2 2.</_></rects>
              <tilted>0</tilted></feature>
            <threshold>-5.7050334289669991e-03</threshold>
            <left_val>4.6420378738104079e-01</left_val>
            <right_val>-1.2306863781449072e-01</right_val></_></_>
        <_>
          <_>
            <feature>
              <rects>
                <_>
                  0 3 4 4 -1.</_>
                <_>
                  0 3 2 2 2.</_>
                <_>
                  2 5 2 2 2.</_></rects>
              <tilted>0</tilted></feature>
            <threshold>5.5702188983559608e-03</threshold>
            <left_val>-1.2569355532082552e-01</left_val>
            <right_val>4.3755660445584726e-01</right_val></_></_>
        <_>
          <_>
            <feature>
              <rects>
                <_>
                  0 0 1 4 -1.</_>
                <_>
                  0 2 1 2 2.</_></rects>
              <tilted>0</tilted></feature>
            <threshold>-3.8190436316654086e-04</threshold>
            <left_val>-3.6350568593616955e-01</left_val>
            <right_val>1.6333954605983700e-01</right_val></_></_>
        <_>
          <_>
            <feature>
              <rects>
                <_>
                  13 16 2 4 -1.</_>
                <_>
                  14 16 1 4 2.</_></rects>
              <tilted>0</tilted></feature>
            <threshold>-1.1951259803026915e-03</threshold>
            <left_val>2.2633591050797641e-01</left_val>
            <right_val>-2.2358397950560568e-01</right_val></_></_>
        <_>
          <_>
            <feature>
              <rects>
                <_>
                  10 13 1 2 -1.</_>
                <_>
                  10 14 1 1 2.</_></rects>
              <tilted>0</tilted></feature>
            <threshold>-5.2893890824634582e-05</threshold>
            <left_val>1.7083191000342862e-01</left_val>
            <right_val>-2.9000975626850878e-01</right_val></_></_>
        <_>
          <_>
            <feature>
              <rects>
                <_>
                  7 8 9 7 -1.</_>
                <_>
                  10 8 3 7 3.</_></rects>
              <tilted>0</tilted></feature>
            <threshold>-2.3749057203531265e-02</threshold>
            <left_val>3.2240974477874274e-01</left_val>
            <right_val>-1.7194946771119923e-01</right_val></_></_>
        <_>
          <_>
            <feature>
              <rects>
                <_>
                  11 0 8 1 -1.</_>
                <_>
                  15 0 4 1 2.</_></rects>
              <tilted>0</tilted></feature>
            <threshold>4.5839957892894745e-03</threshold>
            <left_val>7.8531700865008672e-02</left_val>
            <right_val>-6.8777372718343888e-01</right_val></_></_>
        <_>
          <_>
            <feature>
              <rects>
                <_>
                  0 11 3 9 -1.</_>
                <_>
                  1 11 1 9 3.</_></rects>
              <tilted>0</tilted></feature>
            <threshold>4.0599424391984940e-03</threshold>
            <left_val>-1.8235015842753025e-01</left_val>
            <right_val>3.0607719346492301e-01</right_val></_></_>
        <_>
          <_>
            <feature>
              <rects>
                <_>
                  5 4 5 9 -1.</_>
                <_>
                  5 7 5 3 3.</_></rects>
              <tilted>0</tilted></feature>
            <threshold>-1.7939411103725433e-02</threshold>
            <left_val>2.8841937802928175e-01</left_val>
            <right_val>-1.5888142876177694e-01</right_val></_></_>
        <_>
          <_>
            <feature>
              <rects>
                <_>
                  2 0 18 15 -1.</_>
                <_>
                  11 0 9 15 2.</_></rects>
              <tilted>0</tilted></feature>
            <threshold>-9.2243157327175140e-02</threshold>
            <left_val>1.1667313783351929e-01</left_val>
            <right_val>-4.2597091277864413e-01</right_val></_></_>
        <_>
          <_>
            <feature>
              <rects>
                <_>
                  9 9 3 10 -1.</_>
                <_>
                  10 9 1 10 3.</_></rects>
              <tilted>0</tilted></feature>
            <threshold>2.7796439826488495e-03</threshold>
            <left_val>-1.8333816774830078e-01</left_val>
            <right_val>2.7334561301696020e-01</right_val></_></_>
        <_>
          <_>
            <feature>
              <rects>
                <_>
                  7 2 7 15 -1.</_>
                <_>
                  7 7 7 5 3.</_></rects>
              <tilted>0</tilted></feature>
            <threshold>1.3865441083908081e-01</threshold>
            <left_val>-9.8547744450906125e-02</left_val>
            <right_val>4.3664903742764144e-01</right_val></_></_>
        <_>
          <_>
            <feature>
              <rects>
                <_>
                  9 0 5 9 -1.</_>
                <_>
                  9 3 5 3 3.</_></rects>
              <tilted>0</tilted></feature>
            <threshold>4.9441255629062653e-02</threshold>
            <left_val>-1.3422201489136865e-01</left_val>
            <right_val>3.7959286386732671e-01</right_val></_></_>
        <_>
          <_>
            <feature>
              <rects>
                <_>
                  11 15 5 3 -1.</_>
                <_>
                  11 16 5 1 3.</_></rects>
              <tilted>0</tilted></feature>
            <threshold>2.1635075099766254e-03</threshold>
            <left_val>-1.5320016699613143e-01</left_val>
            <right_val>2.7637857808025990e-01</right_val></_></_>
        <_>
          <_>
            <feature>
              <rects>
                <_>
                  12 14 1 2 -1.</_>
                <_>
                  12 15 1 1 2.</_></rects>
              <tilted>0</tilted></feature>
            <threshold>-5.5388911277987063e-05</threshold>
            <left_val>1.6528094252002618e-01</left_val>
            <right_val>-3.0315218388099902e-01</right_val></_></_>
        <_>
          <_>
            <feature>
              <rects>
                <_>
                  0 1 1 2 -1.</_>
                <_>
                  0 2 1 1 2.</_></rects>
              <tilted>0</tilted></feature>
            <threshold>8.6911008111201227e-05</threshold>
            <left_val>1.5090492665438943e-01</left_val>
            <right_val>-2.8878150548016090e-01</right_val></_></_>
        <_>
          <_>
            <feature>
              <rects>
                <_>
                  0 0 2 1 -1.</_>
                <_>
                  1 0 1 1 2.</_></rects>
              <tilted>0</tilted></feature>
            <threshold>4.7639528929721564e-05</threshold>
            <left_val>-2.3263208731944529e-01</left_val>
            <right_val>1.8847023043428848e-01</right_val></_></_>
        <_>
          <_>
            <feature>
              <rects>
                <_>
                  16 15 4 2 -1.</_>
                <_>
                  16 15 2 1 2.</_>
                <_>
                  18 16 2 1 2.</_></rects>
              <tilted>0</tilted></feature>
            <threshold>1.9057503668591380e-03</threshold>
            <left_val>-1.2393462799494359e-01</left_val>
            <right_val>3.4336436629466266e-01</right_val></_></_>
        <_>
          <_>
            <feature>
              <rects>
                <_>
                  10 6 5 12 -1.</_>
                <_>
                  10 10 5 4 3.</_></rects>
              <tilted>0</tilted></feature>
            <threshold>-5.7160012423992157e-02</threshold>
            <left_val>4.2275725132010744e-01</left_val>
            <right_val>-9.7248488826896656e-02</right_val></_></_>
        <_>
          <_>
            <feature>
              <rects>
                <_>
                  12 12 1 2 -1.</_>
                <_>
                  12 13 1 1 2.</_></rects>
              <tilted>0</tilted></feature>
            <threshold>-4.7941859520506114e-05</threshold>
            <left_val>1.6163898921847508e-01</left_val>
            <right_val>-3.0792460085401446e-01</right_val></_></_></trees>
      <stage_threshold>-1.8656945228576660e+00</stage_threshold>
      <parent>5</parent>
      <next>-1</next></_>
    <_>
      <trees>
        <_>
          <_>
            <feature>
              <rects>
                <_>
                  0 16 2 4 -1.</_>
                <_>
                  0 16 1 2 2.</_>
                <_>
                  1 18 1 2 2.</_></rects>
              <tilted>0</tilted></feature>
            <threshold>5.0472365692257881e-03</threshold>
            <left_val>-5.4126370083813724e-01</left_val>
            <right_val>1.7170495767835556e-01</right_val></_></_>
        <_>
          <_>
            <feature>
              <rects>
                <_>
                  0 0 2 2 -1.</_>
                <_>
                  0 1 2 1 2.</_></rects>
              <tilted>0</tilted></feature>
            <threshold>-5.3628784371539950e-05</threshold>
            <left_val>1.7586116326726170e-01</left_val>
            <right_val>-4.1238216575417619e-01</right_val></_></_>
        <_>
          <_>
            <feature>
              <rects>
                <_>
                  0 0 2 2 -1.</_>
                <_>
                  0 1 2 1 2.</_></rects>
              <tilted>0</tilted></feature>
            <threshold>-3.5624409792944789e-04</threshold>
            <left_val>-5.5727854953537992e-01</left_val>
            <right_val>1.6043342832561400e-01</right_val></_></_>
        <_>
          <_>
            <feature>
              <rects>
                <_>
                  0 1 6 4 -1.</_>
                <_>
                  0 3 6 2 2.</_></rects>
              <tilted>0</tilted></feature>
            <threshold>4.1789710521697998e-03</threshold>
            <left_val>-3.2073592281456337e-01</left_val>
            <right_val>2.4954707859176495e-01</right_val></_></_>
        <_>
          <_>
            <feature>
              <rects>
                <_>
                  13 0 2 1 -1.</_>
                <_>
                  14 0 1 1 2.</_></rects>
              <tilted>0</tilted></feature>
            <threshold>-4.1835257434286177e-05</threshold>
            <left_val>2.1875412456405269e-01</left_val>
            <right_val>-3.7348185550137714e-01</right_val></_></_>
        <_>
          <_>
            <feature>
              <rects>
                <_>
                  0 18 20 2 -1.</_>
                <_>
                  0 19 20 1 2.</_></rects>
              <tilted>0</tilted></feature>
            <threshold>-4.2619109153747559e-02</threshold>
            <left_val>-9.3762371628222441e-01</left_val>
            <right_val>5.7630348155487496e-02</right_val></_></_>
        <_>
          <_>
            <feature>
              <rects>
                <_>
                  14 3 4 3 -1.</_>
                <_>
                  14 4 4 1 3.</_></rects>
              <tilted>0</tilted></feature>
            <threshold>1.5812842175364494e-03</threshold>
            <left_val>-2.0400095256323950e-01</left_val>
            <right_val>2.8610114862446129e-01</right_val></_></_>
        <_>
          <_>
            <feature>
              <rects>
                <_>
                  15 0 2 1 -1.</_>
                <_>
                  16 0 1 1 2.</_></rects>
              <tilted>0</tilted></feature>
            <threshold>8.0788810737431049e-04</threshold>
            <left_val>5.6806069397515487e-02</left_val>
            <right_val>-7.0353906512801867e-01</right_val></_></_>
        <_>
          <_>
            <feature>
              <rects>
                <_>
                  11 0 2 1 -1.</_>
                <_>
                  12 0 1 1 2.</_></rects>
              <tilted>0</tilted></feature>
            <threshold>-5.8997218729928136e-05</threshold>
            <left_val>1.8635362582371115e-01</left_val>
            <right_val>-2.8034694370006702e-01</right_val></_></_>
        <_>
          <_>
            <feature>
              <rects>
                <_>
                  14 18 4 2 -1.</_>
                <_>
                  14 18 2 1 2.</_>
                <_>
                  16 19 2 1 2.</_></rects>
              <tilted>0</tilted></feature>
            <threshold>1.7380111385136843e-03</threshold>
            <left_val>-1.6625723517658120e-01</left_val>
            <right_val>3.2915813331756372e-01</right_val></_></_>
        <_>
          <_>
            <feature>
              <rects>
                <_>
                  0 0 2 1 -1.</_>
                <_>
                  1 0 1 1 2.</_></rects>
              <tilted>0</tilted></feature>
            <threshold>1.8837994139175862e-04</threshold>
            <left_val>1.2462200878252908e-01</left_val>
            <right_val>-4.5059929161380063e-01</right_val></_></_>
        <_>
          <_>
            <feature>
              <rects>
                <_>
                  0 0 2 1 -1.</_>
                <_>
                  1 0 1 1 2.</_></rects>
              <tilted>0</tilted></feature>
            <threshold>4.4435349991545081e-05</threshold>
            <left_val>-2.6675982638392826e-01</left_val>
            <right_val>2.0016833759231803e-01</right_val></_></_>
        <_>
          <_>
            <feature>
              <rects>
                <_>
                  2 0 15 2 -1.</_>
                <_>
                  2 1 15 1 2.</_></rects>
              <tilted>0</tilted></feature>
            <threshold>1.1137461289763451e-02</threshold>
            <left_val>-1.6668130333105449e-01</left_val>
            <right_val>2.9797808875882481e-01</right_val></_></_>
        <_>
          <_>
            <feature>
              <rects>
                <_>
                  0 6 20 14 -1.</_>
                <_>
                  0 13 20 7 2.</_></rects>
              <tilted>0</tilted></feature>
            <threshold>-1.3575282692909241e-01</threshold>
            <left_val>1.4019036699908669e-01</left_val>
            <right_val>-4.2267241356581337e-01</right_val></_></_>
        <_>
          <_>
            <feature>
              <rects>
                <_>
                  5 4 10 12 -1.</_>
                <_>
                  5 8 10 4 3.</_></rects>
              <tilted>0</tilted></feature>
            <threshold>-5.9490777552127838e-02</threshold>
            <left_val>3.8336637671773949e-01</left_val>
            <right_val>-1.7387757344664978e-01</right_val></_></_>
        <_>
          <_>
            <feature>
              <rects>
                <_>
                  11 1 4 9 -1.</_>
                <_>
                  11 4 4 3 3.</_></rects>
              <tilted>0</tilted></feature>
            <threshold>-2.2955153137445450e-02</threshold>
            <left_val>4.1558453087587172e-01</left_val>
            <right_val>-1.2532038275901389e-01</right_val></_></_>
        <_>
          <_>
            <feature>
              <rects>
                <_>
                  10 0 3 3 -1.</_>
                <_>
                  10 1 3 1 3.</_></rects>
              <tilted>0</tilted></feature>
            <threshold>-3.8084678817540407e-03</threshold>
            <left_val>4.3010092699238195e-01</left_val>
            <right_val>-1.2977082770365547e-01</right_val></_></_>
        <_>
          <_>
            <feature>
              <rects>
                <_>
                  19 0 1 3 -1.</_>
                <_>
                  19 1 1 1 3.</_></rects>
              <tilted>0</tilted></feature>
            <threshold>-1.6885252261999995e-04</threshold>
            <left_val>-3.5807498087665890e-01</left_val>
            <right_val>1.4274690561729758e-01</right_val></_></_>
        <_>
          <_>
            <feature>
              <rects>
                <_>
                  19 0 1 3 -1.</_>
                <_>
                  19 1 1 1 3.</_></rects>
              <tilted>0</tilted></feature>
            <threshold>4.5547969057224691e-04</threshold>
            <left_val>1.1002211513997753e-01</left_val>
            <right_val>-4.4148074996939085e-01</right_val></_></_>
        <_>
          <_>
            <feature>
              <rects>
                <_>
                  7 5 8 1 -1.</_>
                <_>
                  11 5 4 1 2.</_></rects>
              <tilted>0</tilted></feature>
            <threshold>7.1042301133275032e-03</threshold>
            <left_val>-1.0574125689067625e-01</left_val>
            <right_val>4.9537503483095052e-01</right_val></_></_>
        <_>
          <_>
            <feature>
              <rects>
                <_>
                  11 5 2 1 -1.</_>
                <_>
                  12 5 1 1 2.</_></rects>
              <tilted>0</tilted></feature>
            <threshold>-1.6670237528160214e-04</threshold>
            <left_val>2.0112417471293831e-01</left_val>
            <right_val>-2.3852243706873297e-01</right_val></_></_>
        <_>
          <_>
            <feature>
              <rects>
                <_>
                  0 19 4 1 -1.</_>
                <_>
                  2 19 2 1 2.</_></rects>
              <tilted>0</tilted></feature>
            <threshold>9.3211268540471792e-04</threshold>
            <left_val>-2.5737947942102435e-01</left_val>
            <right_val>1.8559707598431571e-01</right_val></_></_>
        <_>
          <_>
            <feature>
              <rects>
                <_>
                  1 2 12 8 -1.</_>
                <_>
                  1 2 6 4 2.</_>
                <_>
                  7 6 6 4 2.</_></rects>
              <tilted>0</tilted></feature>
            <threshold>4.9358081072568893e-02</threshold>
            <left_val>-1.2802661693296083e-01</left_val>
            <right_val>3.8799517539447620e-01</right_val></_></_>
        <_>
          <_>
            <feature>
              <rects>
                <_>
                  14 2 5 3 -1.</_>
                <_>
                  14 3 5 1 3.</_></rects>
              <tilted>0</tilted></feature>
            <threshold>2.2399341687560081e-03</threshold>
            <left_val>-1.6347300203775236e-01</left_val>
            <right_val>2.8377177152241362e-01</right_val></_></_>
        <_>
          <_>
            <feature>
              <rects>
                <_>
                  6 13 9 3 -1.</_>
                <_>
                  6 14 9 1 3.</_></rects>
              <tilted>0</tilted></feature>
            <threshold>2.6229303330183029e-03</threshold>
            <left_val>-1.7410709156401025e-01</left_val>
            <right_val>2.4671865395268880e-01</right_val></_></_>
        <_>
          <_>
            <feature>
              <rects>
                <_>
                  8 13 1 2 -1.</_>
                <_>
                  8 14 1 1 2.</_></rects>
              <tilted>0</tilted></feature>
            <threshold>-5.3430194384418428e-05</threshold>
            <left_val>1.7220736166605180e-01</left_val>
            <right_val>-3.0545295350789470e-01</right_val></_></_>
        <_>
          <_>
            <feature>
              <rects>
                <_>
                  3 6 12 8 -1.</_>
                <_>
                  7 6 4 8 3.</_></rects>
              <tilted>0</tilted></feature>
            <threshold>-5.7305283844470978e-02</threshold>
            <left_val>3.8077165466945323e-01</left_val>
            <right_val>-1.4495000480836881e-01</right_val></_></_>
        <_>
          <_>
            <feature>
              <rects>
                <_>
                  10 8 2 1 -1.</_>
                <_>
                  11 8 1 1 2.</_></rects>
              <tilted>0</tilted></feature>
            <threshold>-5.6813678384060040e-05</threshold>
            <left_val>1.9575216194475722e-01</left_val>
            <right_val>-2.5708822264474385e-01</right_val></_></_>
        <_>
          <_>
            <feature>
              <rects>
                <_>
                  10 17 1 2 -1.</_>
                <_>
                  10 18 1 1 2.</_></rects>
              <tilted>0</tilted></feature>
            <threshold>-1.9693610374815762e-04</threshold>
            <left_val>1.7995164079606668e-01</left_val>
            <right_val>-2.5267924574181883e-01</right_val></_></_>
        <_>
          <_>
            <feature>
              <rects>
                <_>
                  7 1 9 12 -1.</_>
                <_>
                  7 5 9 4 3.</_></rects>
              <tilted>0</tilted></feature>
            <threshold>1.5122668445110321e-01</threshold>
            <left_val>-9.8052344431963895e-02</left_val>
            <right_val>4.9094238848132155e-01</right_val></_></_>
        <_>
          <_>
            <feature>
              <rects>
                <_>
                  2 7 6 11 -1.</_>
                <_>
                  4 7 2 11 3.</_></rects>
              <tilted>0</tilted></feature>
            <threshold>-9.8969452083110809e-03</threshold>
            <left_val>2.8884019973470954e-01</left_val>
            <right_val>-1.5435020144862477e-01</right_val></_></_>
        <_>
          <_>
            <feature>
              <rects>
                <_>
                  11 0 1 3 -1.</_>
                <_>
                  11 1 1 1 3.</_></rects>
              <tilted>0</tilted></feature>
            <threshold>7.7676854562014341e-04</threshold>
            <left_val>-1.6509394233758265e-01</left_val>
            <right_val>2.9134976128708118e-01</right_val></_></_>
        <_>
          <_>
            <feature>
              <rects>
                <_>
                  16 0 4 1 -1.</_>
                <_>
                  18 0 2 1 2.</_></rects>
              <tilted>0</tilted></feature>
            <threshold>2.8437860310077667e-03</threshold>
            <left_val>7.0691003531001731e-02</left_val>
            <right_val>-6.2561341588987140e-01</right_val></_></_>
        <_>
          <_>
            <feature>
              <rects>
                <_>
                  2 0 18 1 -1.</_>
                <_>
                  11 0 9 1 2.</_></rects>
              <tilted>0</tilted></feature>
            <threshold>-3.3101895824074745e-03</threshold>
            <left_val>1.1082795001163245e-01</left_val>
            <right_val>-3.6128615070815201e-01</right_val></_></_></trees>
      <stage_threshold>-1.8846590518951416e+00</stage_threshold>
      <parent>6</parent>
      <next>-1</next></_>
    <_>
      <trees>
        <_>
          <_>
            <feature>
              <rects>
                <_>
                  0 0 3 1 -1.</_>
                <_>
                  1 0 1 1 3.</_></rects>
              <tilted>0</tilted></feature>
            <threshold>-4.8281674389727414e-04</threshold>
            <left_val>-8.7391304347826093e-01</left_val>
            <right_val>-2.4360252575602936e-01</right_val></_></_>
        <_>
          <_>
            <feature>
              <rects>
                <_>
                  0 0 2 1 -1.</_>
                <_>
                  1 0 1 1 2.</_></rects>
              <tilted>0</tilted></feature>
            <threshold>3.5823823418468237e-04</threshold>
            <left_val>7.9206213357751451e-02</left_val>
            <right_val>-8.1732606987596712e-01</right_val></_></_>
        <_>
          <_>
            <feature>
              <rects>
                <_>
                  0 16 2 4 -1.</_>
                <_>
                  0 18 2 2 2.</_></rects>
              <tilted>0</tilted></feature>
            <threshold>-1.7788426484912634e-03</threshold>
            <left_val>2.1124345325728991e-01</left_val>
            <right_val>-4.4355633651651027e-01</right_val></_></_>
        <_>
          <_>
            <feature>
              <rects>
                <_>
                  0 0 1 2 -1.</_>
                <_>
                  0 1 1 1 2.</_></rects>
              <tilted>0</tilted></feature>
            <threshold>-5.5833766236901283e-04</threshold>
            <left_val>-7.7849917584815920e-01</left_val>
            <right_val>1.2256452040770534e-01</right_val></_></_>
        <_>
          <_>
            <feature>
              <rects>
                <_>
                  0 0 1 2 -1.</_>
                <_>
                  0 1 1 1 2.</_></rects>
              <tilted>0</tilted></feature>
            <threshold>-5.3734889661427587e-05</threshold>
            <left_val>3.4030143570433302e-01</left_val>
            <right_val>-3.6302558685742814e-01</right_val></_></_>
        <_>
          <_>
            <feature>
              <rects>
                <_>
                  16 13 4 5 -1.</_>
                <_>
                  18 13 2 5 2.</_></rects>
              <tilted>0</tilted></feature>
            <threshold>-9.7253704443573952e-03</threshold>
            <left_val>2.8820063844428145e-01</left_val>
            <right_val>-2.1690192349681386e-01</right_val></_></_>
        <_>
          <_>
            <feature>
              <rects>
                <_>
                  12 13 1 2 -1.</_>
                <_>
                  12 14 1 1 2.</_></rects>
              <tilted>0</tilted></feature>
            <threshold>-5.3813484555575997e-05</threshold>
            <left_val>1.9306161482251435e-01</left_val>
            <right_val>-3.3659201386063980e-01</right_val></_></_>
        <_>
          <_>
            <feature>
              <rects>
                <_>
                  17 0 3 1 -1.</_>
                <_>
                  18 0 1 1 3.</_></rects>
              <tilted>0</tilted></feature>
            <threshold>-5.2528630476444960e-04</threshold>
            <left_val>-4.7721445571644805e-01</left_val>
            <right_val>1.2789777981010281e-01</right_val></_></_>
        <_>
          <_>
            <feature>
              <rects>
                <_>
                  17 0 3 1 -1.</_>
                <_>
                  18 0 1 1 3.</_></rects>
              <tilted>0</tilted></feature>
            <threshold>7.1142253000289202e-04</threshold>
            <left_val>1.0665808858259955e-01</left_val>
            <right_val>-6.5845963838316457e-01</right_val></_></_>
        <_>
          <_>
            <feature>
              <rects>
                <_>
                  0 17 18 1 -1.</_>
                <_>
                  6 17 6 1 3.</_></rects>
              <tilted>0</tilted></feature>
            <threshold>1.7631068825721741e-02</threshold>
            <left_val>-1.8576973027413568e-01</left_val>
            <right_val>3.3449735311944040e-01</right_val></_></_>
        <_>
          <_>
            <feature>
              <rects>
                <_>
                  0 2 19 18 -1.</_>
                <_>
                  0 11 19 9 2.</_></rects>
              <tilted>0</tilted></feature>
            <threshold>-2.8974613547325134e-01</threshold>
            <left_val>2.1232735539179759e-01</left_val>
            <right_val>-2.6872035472882860e-01</right_val></_></_>
        <_>
          <_>
            <feature>
              <rects>
                <_>
                  6 1 4 12 -1.</_>
                <_>
                  6 5 4 4 3.</_></rects>
              <tilted>0</tilted></feature>
            <threshold>-4.7034032642841339e-02</threshold>
            <left_val>4.4759271236101084e-01</left_val>
            <right_val>-1.3034050888494844e-01</right_val></_></_>
        <_>
          <_>
            <feature>
              <rects>
                <_>
                  13 5 3 12 -1.</_>
                <_>
                  13 9 3 4 3.</_></rects>
              <tilted>0</tilted></feature>
            <threshold>-4.2409151792526245e-02</threshold>
            <left_val>5.4551787151457731e-01</left_val>
            <right_val>-1.0257088446029308e-01</right_val></_></_>
        <_>
          <_>
            <feature>
              <rects>
                <_>
                  4 14 12 4 -1.</_>
                <_>
                  8 14 4 4 3.</_></rects>
              <tilted>0</tilted></feature>
            <threshold>-3.3154945820569992e-02</threshold>
            <left_val>4.2062325841257259e-01</left_val>
            <right_val>-1.4017041290685409e-01</right_val></_></_>
        <_>
          <_>
            <feature>
              <rects>
                <_>
                  4 14 15 3 -1.</_>
                <_>
                  9 14 5 3 3.</_></rects>
              <tilted>0</tilted></feature>
            <threshold>3.4306295216083527e-02</threshold>
            <left_val>-1.8501206943642831e-01</left_val>
            <right_val>3.6140508190508214e-01</right_val></_></_>
        <_>
          <_>
            <feature>
              <rects>
                <_>
                  5 16 15 2 -1.</_>
                <_>
                  10 16 5 2 3.</_></rects>
              <tilted>0</tilted></feature>
            <threshold>-4.2302057147026062e-02</threshold>
            <left_val>5.7050388427342602e-01</left_val>
            <right_val>-8.7697763487623773e-02</right_val></_></_>
        <_>
          <_>
            <feature>
              <rects>
                <_>
                  2 0 18 12 -1.</_>
                <_>
                  11 0 9 12 2.</_></rects>
              <tilted>0</tilted></feature>
            <threshold>-1.3473486900329590e-01</threshold>
            <left_val>1.6932097373865648e-01</left_val>
            <right_val>-3.3844209932496166e-01</right_val></_></_>
        <_>
          <_>
            <feature>
              <rects>
                <_>
                  19 2 1 6 -1.</_>
                <_>
                  19 5 1 3 2.</_></rects>
              <tilted>0</tilted></feature>
            <threshold>3.5344762727618217e-03</threshold>
            <left_val>-1.8779186768627032e-01</left_val>
            <right_val>3.0648479199311957e-01</right_val></_></_>
        <_>
          <_>
            <feature>
              <rects>
                <_>
                  0 19 2 1 -1.</_>
                <_>
                  1 19 1 1 2.</_></rects>
              <tilted>0</tilted></feature>
            <threshold>2.9168403707444668e-03</threshold>
            <left_val>-1.1948157464139293e-01</left_val>
            <right_val>4.3356475719252680e-01</right_val></_></_>
        <_>
          <_>
            <feature>
              <rects>
                <_>
                  0 0 2 1 -1.</_>
                <_>
                  1 0 1 1 2.</_></rects>
              <tilted>0</tilted></feature>
            <threshold>4.4500102376332507e-05</threshold>
            <left_val>-2.8665702529797854e-01</left_val>
            <right_val>2.0136794309945477e-01</right_val></_></_>
        <_>
          <_>
            <feature>
              <rects>
                <_>
                  1 8 15 3 -1.</_>
                <_>
                  6 8 5 3 3.</_></rects>
              <tilted>0</tilted></feature>
            <threshold>-7.3504075407981873e-02</threshold>
            <left_val>5.8937781488939933e-01</left_val>
            <right_val>-8.2677162210687688e-02</right_val></_></_>
        <_>
          <_>
            <feature>
              <rects>
                <_>
                  0 13 11 3 -1.</_>
                <_>
                  0 14 11 1 3.</_></rects>
              <tilted>0</tilted></feature>
            <threshold>3.8059600628912449e-03</threshold>
            <left_val>-1.6369897484598492e-01</left_val>
            <right_val>2.8353813772726888e-01</right_val></_></_>
        <_>
          <_>
            <feature>
              <rects>
                <_>
                  10 12 1 2 -1.</_>
                <_>
                  10 13 1 1 2.</_></rects>
              <tilted>0</tilted></feature>
            <threshold>-5.9354097174946219e-05</threshold>
            <left_val>1.4955635769890510e-01</left_val>
            <right_val>-3.1329074777865557e-01</right_val></_></_>
        <_>
          <_>
            <feature>
              <rects>
                <_>
                  1 1 12 13 -1.</_>
                <_>
                  5 1 4 13 3.</_></rects>
              <tilted>0</tilted></feature>
            <threshold>1.6048091650009155e-01</threshold>
            <left_val>-1.1797180278109581e-01</left_val>
            <right_val>4.1317841133201860e-01</right_val></_></_>
        <_>
          <_>
            <feature>
              <rects>
                <_>
                  10 8 3 1 -1.</_>
                <_>
                  11 8 1 1 3.</_></rects>
              <tilted>0</tilted></feature>
            <threshold>-2.1258728520479053e-04</threshold>
            <left_val>-2.8735967512637722e-01</left_val>
            <right_val>1.5828617938440764e-01</right_val></_></_>
        <_>
          <_>
            <feature>
              <rects>
                <_>
                  19 1 1 8 -1.</_>
                <_>
                  19 5 1 4 2.</_></rects>
              <tilted>0</tilted></feature>
            <threshold>-7.4794460088014603e-03</threshold>
            <left_val>4.2793265258935165e-01</left_val>
            <right_val>-1.0585823721751472e-01</right_val></_></_>
        <_>
          <_>
            <feature>
              <rects>
                <_>
                  9 0 11 4 -1.</_>
                <_>
                  9 2 11 2 2.</_></rects>
              <tilted>0</tilted></feature>
            <threshold>2.3199819028377533e-02</threshold>
            <left_val>-1.9671522572316097e-01</left_val>
            <right_val>3.1422045926472780e-01</right_val></_></_>
        <_>
          <_>
            <feature>
              <rects>
                <_>
                  1 4 14 14 -1.</_>
                <_>
                  1 4 7 7 2.</_>
                <_>
                  8 11 7 7 2.</_></rects>
              <tilted>0</tilted></feature>
            <threshold>1.4760628342628479e-01</threshold>
            <left_val>-9.6469840068305709e-02</left_val>
            <right_val>4.4424428525359372e-01</right_val></_></_>
        <_>
          <_>
            <feature>
              <rects>
                <_>
                  13 3 3 12 -1.</_>
                <_>
                  13 7 3 4 3.</_></rects>
              <tilted>0</tilted></feature>
            <threshold>4.3321117758750916e-02</threshold>
            <left_val>-1.1702249039524094e-01</left_val>
            <right_val>4.1014764473325971e-01</right_val></_></_>
        <_>
          <_>
            <feature>
              <rects>
                <_>
                  5 15 7 3 -1.</_>
                <_>
                  5 16 7 1 3.</_></rects>
              <tilted>0</tilted></feature>
            <threshold>3.7116445600986481e-03</threshold>
            <left_val>-1.5027008933866462e-01</left_val>
            <right_val>2.9630568667855373e-01</right_val></_></_>
        <_>
          <_>
            <feature>
              <rects>
                <_>
                  0 1 1 2 -1.</_>
                <_>
                  0 2 1 1 2.</_></rects>
              <tilted>0</tilted></feature>
            <threshold>-1.9279838306829333e-04</threshold>
            <left_val>-3.8911452560855453e-01</left_val>
            <right_val>1.0724846416048904e-01</right_val></_></_></trees>
      <stage_threshold>-2.0353813171386719e+00</stage_threshold>
      <parent>7</parent>
      <next>-1</next></_>
    <_>
      <trees>
        <_>
          <_>
            <feature>
              <rects>
                <_>
                  0 1 1 2 -1.</_>
                <_>
                  0 2 1 1 2.</_></rects>
              <tilted>0</tilted></feature>
            <threshold>1.3730260252486914e-04</threshold>
            <left_val>-1.9808306709262552e-01</left_val>
            <right_val>-7.3052631578943317e-01</right_val></_></_>
        <_>
          <_>
            <feature>
              <rects>
                <_>
                  0 0 2 3 -1.</_>
                <_>
                  0 1 2 1 3.</_></rects>
              <tilted>0</tilted></feature>
            <threshold>3.0464574228972197e-04</threshold>
            <left_val>9.2564690423288951e-02</left_val>
            <right_val>-6.0338116348534376e-01</right_val></_></_>
        <_>
          <_>
            <feature>
              <rects>
                <_>
                  0 0 1 2 -1.</_>
                <_>
                  0 1 1 1 2.</_></rects>
              <tilted>0</tilted></feature>
            <threshold>-5.1111471839249134e-04</threshold>
            <left_val>-7.9858811644923244e-01</left_val>
            <right_val>1.0758595305132831e-01</right_val></_></_>
        <_>
          <_>
            <feature>
              <rects>
                <_>
                  18 0 2 2 -1.</_>
                <_>
                  18 0 1 1 2.</_>
                <_>
                  19 1 1 1 2.</_></rects>
              <tilted>0</tilted></feature>
            <threshold>-2.1904366440139711e-04</threshold>
            <left_val>-4.7823745369216208e-01</left_val>
            <right_val>1.6156005037618745e-01</right_val></_></_>
        <_>
          <_>
            <feature>
              <rects>
                <_>
                  18 0 2 2 -1.</_>
                <_>
                  18 0 1 1 2.</_>
                <_>
                  19 1 1 1 2.</_></rects>
              <tilted>0</tilted></feature>
            <threshold>2.5489821564406157e-04</threshold>
            <left_val>1.1758006334349037e-01</left_val>
            <right_val>-5.7816524660934088e-01</right_val></_></_>
        <_>
          <_>
            <feature>
              <rects>
                <_>
                  18 5 2 11 -1.</_>
                <_>
                  19 5 1 11 2.</_></rects>
              <tilted>0</tilted></feature>
            <threshold>-9.7922850400209427e-03</threshold>
            <left_val>3.5874369654914251e-01</left_val>
            <right_val>-1.8752558245994955e-01</right_val></_></_>
        <_>
          <_>
            <feature>
              <rects>
                <_>
                  10 15 1 2 -1.</_>
                <_>
                  10 16 1 1 2.</_></rects>
              <tilted>0</tilted></feature>
            <threshold>-5.2845243772026151e-05</threshold>
            <left_val>1.9653649132175799e-01</left_val>
            <right_val>-2.9625082154133459e-01</right_val></_></_>
        <_>
          <_>
            <feature>
              <rects>
                <_>
                  0 15 2 5 -1.</_>
                <_>
                  1 15 1 5 2.</_></rects>
              <tilted>0</tilted></feature>
            <threshold>8.7875744793564081e-04</threshold>
            <left_val>-2.7645873439946383e-01</left_val>
            <right_val>1.8697320226934153e-01</right_val></_></_>
        <_>
          <_>
            <feature>
              <rects>
                <_>
                  0 6 20 14 -1.</_>
                <_>
                  0 13 20 7 2.</_></rects>
              <tilted>0</tilted></feature>
            <threshold>-6.7927807569503784e-02</threshold>
            <left_val>1.0289925542993010e-01</left_val>
            <right_val>-5.0402348061640956e-01</right_val></_></_>
        <_>
          <_>
            <feature>
              <rects>
                <_>
                  7 5 12 11 -1.</_>
                <_>
                  11 5 4 11 3.</_></rects>
              <tilted>0</tilted></feature>
            <threshold>1.4213745296001434e-01</threshold>
            <left_val>-1.0751499371687737e-01</left_val>
            <right_val>5.1515021448166765e-01</right_val></_></_>
        <_>
          <_>
            <feature>
              <rects>
                <_>
                  4 4 10 11 -1.</_>
                <_>
                  9 4 5 11 2.</_></rects>
              <tilted>0</tilted></feature>
            <threshold>-1.0754224658012390e-01</threshold>
            <left_val>4.2743090208562506e-01</left_val>
            <right_val>-1.4006613157587949e-01</right_val></_></_>
        <_>
          <_>
            <feature>
              <rects>
                <_>
                  1 6 9 9 -1.</_>
                <_>
                  4 6 3 9 3.</_></rects>
              <tilted>0</tilted></feature>
            <threshold>-4.3846115469932556e-02</threshold>
            <left_val>4.0927270332259474e-01</left_val>
            <right_val>-1.3137192626653410e-01</right_val></_></_>
        <_>
          <_>
            <feature>
              <rects>
                <_>
                  12 0 5 2 -1.</_>
                <_>
                  12 1 5 1 2.</_></rects>
              <tilted>0</tilted></feature>
            <threshold>4.2589465156197548e-03</threshold>
            <left_val>-1.5595107566322156e-01</left_val>
            <right_val>2.7672647327967592e-01</right_val></_></_>
        <_>
          <_>
            <feature>
              <rects>
                <_>
                  9 8 2 1 -1.</_>
                <_>
